Language model created by QuickLM on Thu Oct 19 12:47:24 EDT 2017
Copyright (c) 1996-2010 Carnegie Mellon University and Alexander I. Rudnicky

The model is in standard ARPA format, designed by Doug Paul while he was at MITRE.

The code that was used to produce this language model is available in Open Source.
Please visit http://www.speech.cs.cmu.edu/tools/ for more information

The (fixed) discount mass is 0.5. The backoffs are computed using the ratio method.
This model based on a corpus of 42 sentences and 83 words

\data\
ngram 1=83
ngram 2=135
ngram 3=131

\1-grams:
-1.0414 </s> -0.3010
-1.0414 <s> -0.2460
-2.6646 ABONG -0.3001
-2.3636 AI -0.2991
-2.6646 AJKEE -0.3001
-2.6646 AKHON -0.3001
-2.6646 ALU -0.3001
-2.1875 ALUR -0.2944
-2.1875 AMAR -0.2982
-1.5185 AMI -0.2808
-2.3636 AMRA -0.2991
-2.1875 APONADER -0.2982
-2.3636 APONARAA -0.2982
-2.6646 AR -0.2991
-2.6646 ARO -0.2982
-2.3636 ASAN -0.2596
-2.6646 ASHA -0.2982
-2.6646 ASI -0.2596
-2.6646 ASO -0.2596
-2.6646 BAJARAR -0.3001
-2.3636 BAKKO -0.2586
-1.9657 BANGLA -0.2954
-2.3636 BANGLADESHA -0.2954
-2.6646 BARISALA -0.2963
-2.6646 BASH -0.2982
-2.1875 BOLA -0.2973
-2.6646 BOLBO -0.2596
-2.6646 CHINTA -0.3001
-2.6646 CHITTAGONGA -0.2963
-1.8195 DAAM -0.2523
-2.6646 DHAKAI -0.2963
-2.6646 DHONNOBAD -0.2596
-2.6646 DHORUN -0.2596
-2.3636 GOROM -0.2596
-2.6646 HASIBUL -0.2596
-2.6646 HUDA -0.2596
-2.3636 JAAI -0.2596
-2.3636 JAI -0.2596
-2.6646 JAMON -0.3001
-2.3636 KAAJ -0.2565
-2.6646 KAJI -0.3001
-2.3636 KAMON -0.2982
-2.6646 KHAAI -0.2596
-2.6646 KHUB -0.2991
-2.3636 KI -0.2982
-2.6646 KICHU -0.2963
-2.6646 KISU -0.3001
-2.1875 KORI -0.2576
-2.6646 KORTA -0.2982
-2.6646 KORTEE -0.2982
-2.6646 KOTHA -0.3001
-2.3636 KOTHIN -0.2576
-1.8195 KOTO -0.2565
-2.6646 LAKHONITEE -0.2991
-2.6646 LEKHA -0.2991
-2.6646 LEKHTA -0.2982
-2.3636 MASAAR -0.2944
-2.1875 NAAM -0.2982
-2.6646 NORTH -0.3001
-2.6646 ONAK -0.2991
-2.1875 PARI -0.2596
-2.6646 PIAJEER -0.2944
-2.6646 PORI -0.2596
-2.6646 PROTI -0.3001
-2.6646 RAJSHAHITA -0.2963
-2.6646 SADHARON -0.2991
-2.6646 SCHOOLA -0.2991
-2.6646 SHA -0.2596
-2.3636 SHAGOTWM -0.2596
-2.6646 SHAZZAD -0.2596
-2.6646 SHOBAI -0.2991
-2.1875 SHOBAIKEE -0.2934
-2.6646 SHOBJIR -0.2944
-2.6646 SILO -0.3001
-2.6646 SOUTHE -0.3001
-2.6646 SURU -0.3001
-2.6646 TAKA -0.2596
-1.9657 THAKI -0.2596
-2.6646 TRISH -0.3001
-2.3636 TUMI -0.2982
-2.3636 VALO -0.2982
-2.6646 VASHA -0.2991
-2.6646 VAT -0.3001

\2-grams:
-1.6232 <s> AI 0.0000
-1.9243 <s> AJKEE 0.0000
-1.9243 <s> AKHON 0.0000
-1.9243 <s> ALU 0.0000
-1.6232 <s> ALUR 0.0000
-1.4472 <s> AMAR 0.0000
-0.7782 <s> AMI -0.0000
-1.6232 <s> AMRA 0.0000
-1.4472 <s> APONADER 0.0000
-1.9243 <s> APONARAA -0.1761
-1.9243 <s> AR 0.0000
-1.9243 <s> ARO 0.0000
-1.9243 <s> ASHA 0.0000
-1.6232 <s> BANGLA -0.2041
-1.9243 <s> JAMON 0.0000
-1.9243 <s> KI 0.0000
-1.9243 <s> KOTO -0.2688
-1.6232 <s> MASAAR 0.0000
-1.9243 <s> PIAJEER 0.0000
-1.9243 <s> TUMI -0.1761
-0.3010 ABONG SHA 0.0000
-0.6021 AI SHOBJIR 0.0000
-0.6021 AI SILO 0.0000
-0.3010 AJKEE ONAK 0.0000
-0.3010 AKHON KHUB 0.0000
-0.3010 ALU PROTI 0.0000
-0.3010 ALUR DAAM 0.0000
-0.3010 AMAR NAAM 0.0000
-1.4472 AMI BANGLA -0.2553
-1.1461 AMI BANGLADESHA 0.0000
-1.4472 AMI BARISALA 0.0000
-1.4472 AMI CHITTAGONGA 0.0000
-1.4472 AMI DHAKAI 0.0000
-1.4472 AMI KAAJ -0.1761
-1.4472 AMI KICHU 0.0000
-1.4472 AMI NORTH 0.0000
-1.4472 AMI RAJSHAHITA 0.0000
-1.4472 AMI SCHOOLA 0.0000
-1.4472 AMI TUMI -0.1761
-1.4472 AMI VALO -0.1761
-1.4472 AMI VAT 0.0000
-0.6021 AMRA BAJARAR 0.0000
-0.6021 AMRA SURU 0.0000
-0.3010 APONADER SHOBAIKEE 0.0000
-0.6021 APONARAA KAMON -0.1761
-0.6021 APONARAA SHOBAI 0.0000
-0.3010 AR KI 0.0000
-0.3010 ARO BOLA -0.2218
-0.3010 ASAN </s> -0.3010
-0.3010 ASHA KORI -0.2218
-0.3010 ASI </s> -0.3010
-0.3010 ASO </s> -0.3010
-0.3010 BAJARAR KOTHA 0.0000
-0.6021 BAKKO </s> -0.3010
-0.6021 BAKKO BOLBO 0.0000
-1.0000 BANGLA BAKKO -0.1761
-1.0000 BANGLA LAKHONITEE 0.0000
-1.0000 BANGLA LEKHA 0.0000
-1.0000 BANGLA LEKHTA 0.0000
-1.0000 BANGLA VASHA 0.0000
-0.6021 BANGLADESHA BASH 0.0000
-0.6021 BANGLADESHA THAKI 0.0000
-0.3010 BARISALA THAKI 0.0000
-0.3010 BASH KORI -0.1249
-0.4771 BOLA JAAI 0.0000
-0.7782 BOLA JAI 0.0000
-0.3010 BOLBO </s> -0.3010
-0.3010 CHINTA KORTEE 0.0000
-0.3010 CHITTAGONGA THAKI 0.0000
-1.1461 DAAM </s> -0.3010
-0.3680 DAAM KOTO -0.0580
-0.3010 DHAKAI THAKI 0.0000
-0.3010 DHONNOBAD </s> -0.3010
-0.3010 DHORUN </s> -0.3010
-0.3010 GOROM </s> -0.3010
-0.3010 HASIBUL </s> -0.3010
-0.3010 HUDA </s> -0.3010
-0.3010 JAAI </s> -0.3010
-0.3010 JAI </s> -0.3010
-0.3010 JAMON DHORUN 0.0000
-0.6021 KAAJ </s> -0.3010
-0.6021 KAAJ KORI -0.1249
-0.3010 KAJI TRISH 0.0000
-0.6021 KAMON ASAN 0.0000
-0.6021 KAMON ASO 0.0000
-0.3010 KHAAI </s> -0.3010
-0.3010 KHUB GOROM 0.0000
-0.3010 KI BOLA -0.1249
-0.3010 KICHU BANGLA -0.2553
-0.3010 KISU SADHARON 0.0000
-0.4771 KORI </s> -0.3010
-0.7782 KORI APONARAA -0.1761
-0.3010 KORTA PARI 0.0000
-0.3010 KORTEE PARI 0.0000
-0.3010 KOTHA CHINTA 0.0000
-0.6021 KOTHIN </s> -0.3010
-0.6021 KOTHIN KAAJ -0.1761
-0.3680 KOTO </s> -0.3010
-1.1461 KOTO ALUR 0.0000
-0.3010 LAKHONITEE SHAGOTWM 0.0000
-0.3010 LEKHA KOTHIN -0.1761
-0.3010 LEKHTA PARI 0.0000
-0.3010 MASAAR DAAM -0.0580
-0.7782 NAAM HASIBUL 0.0000
-0.7782 NAAM HUDA 0.0000
-0.7782 NAAM SHAZZAD 0.0000
-0.3010 NORTH SOUTHE 0.0000
-0.3010 ONAK GOROM 0.0000
-0.3010 PARI </s> -0.3010
-0.3010 PIAJEER DAAM -0.0580
-0.3010 PORI </s> -0.3010
-0.3010 PROTI KAJI 0.0000
-0.3010 RAJSHAHITA THAKI 0.0000
-0.3010 SADHARON BAKKO -0.1761
-0.3010 SCHOOLA JAI 0.0000
-0.3010 SHA </s> -0.3010
-0.3010 SHAGOTWM </s> -0.3010
-0.3010 SHAZZAD </s> -0.3010
-0.3010 SHOBAI VALO -0.1761
-0.7782 SHOBAIKEE BANGLA -0.2553
-0.7782 SHOBAIKEE DHONNOBAD 0.0000
-0.7782 SHOBAIKEE SHAGOTWM 0.0000
-0.3010 SHOBJIR DAAM -0.0580
-0.3010 SILO KISU 0.0000
-0.3010 SOUTHE PORI 0.0000
-0.3010 SURU KORTA 0.0000
-0.3010 TAKA </s> -0.3010
-0.3010 THAKI </s> -0.3010
-0.3010 TRISH TAKA 0.0000
-0.6021 TUMI ABONG 0.0000
-0.6021 TUMI KAMON -0.1761
-0.6021 VALO ASAN 0.0000
-0.6021 VALO ASI 0.0000
-0.3010 VASHA KOTHIN -0.1761
-0.3010 VAT KHAAI 0.0000

\3-grams:
-0.6021 <s> AI SHOBJIR
-0.6021 <s> AI SILO
-0.3010 <s> AJKEE ONAK
-0.3010 <s> AKHON KHUB
-0.3010 <s> ALU PROTI
-0.3010 <s> ALUR DAAM
-0.3010 <s> AMAR NAAM
-1.4472 <s> AMI BANGLA
-1.1461 <s> AMI BANGLADESHA
-1.4472 <s> AMI BARISALA
-1.4472 <s> AMI CHITTAGONGA
-1.4472 <s> AMI DHAKAI
-1.4472 <s> AMI KAAJ
-1.4472 <s> AMI KICHU
-1.4472 <s> AMI NORTH
-1.4472 <s> AMI RAJSHAHITA
-1.4472 <s> AMI SCHOOLA
-1.4472 <s> AMI TUMI
-1.4472 <s> AMI VALO
-1.4472 <s> AMI VAT
-0.6021 <s> AMRA BAJARAR
-0.6021 <s> AMRA SURU
-0.3010 <s> APONADER SHOBAIKEE
-0.3010 <s> APONARAA KAMON
-0.3010 <s> AR KI
-0.3010 <s> ARO BOLA
-0.3010 <s> ASHA KORI
-0.6021 <s> BANGLA LEKHA
-0.6021 <s> BANGLA VASHA
-0.3010 <s> JAMON DHORUN
-0.3010 <s> KI BOLA
-0.3010 <s> KOTO ALUR
-0.3010 <s> MASAAR DAAM
-0.3010 <s> PIAJEER DAAM
-0.3010 <s> TUMI KAMON
-0.3010 ABONG SHA </s>
-0.3010 AI SHOBJIR DAAM
-0.3010 AI SILO KISU
-0.3010 AJKEE ONAK GOROM
-0.3010 AKHON KHUB GOROM
-0.3010 ALU PROTI KAJI
-0.7782 ALUR DAAM </s>
-0.4771 ALUR DAAM KOTO
-0.7782 AMAR NAAM HASIBUL
-0.7782 AMAR NAAM HUDA
-0.7782 AMAR NAAM SHAZZAD
-0.3010 AMI BANGLA LEKHTA
-0.6021 AMI BANGLADESHA BASH
-0.6021 AMI BANGLADESHA THAKI
-0.3010 AMI BARISALA THAKI
-0.3010 AMI CHITTAGONGA THAKI
-0.3010 AMI DHAKAI THAKI
-0.3010 AMI KAAJ KORI
-0.3010 AMI KICHU BANGLA
-0.3010 AMI NORTH SOUTHE
-0.3010 AMI RAJSHAHITA THAKI
-0.3010 AMI SCHOOLA JAI
-0.3010 AMI TUMI ABONG
-0.3010 AMI VALO ASI
-0.3010 AMI VAT KHAAI
-0.3010 AMRA BAJARAR KOTHA
-0.3010 AMRA SURU KORTA
-0.7782 APONADER SHOBAIKEE BANGLA
-0.7782 APONADER SHOBAIKEE DHONNOBAD
-0.7782 APONADER SHOBAIKEE SHAGOTWM
-0.3010 APONARAA KAMON ASAN
-0.3010 APONARAA SHOBAI VALO
-0.3010 AR KI BOLA
-0.3010 ARO BOLA JAI
-0.3010 ASHA KORI APONARAA
-0.3010 BAJARAR KOTHA CHINTA
-0.3010 BAKKO BOLBO </s>
-0.3010 BANGLA BAKKO BOLBO
-0.3010 BANGLA LAKHONITEE SHAGOTWM
-0.3010 BANGLA LEKHA KOTHIN
-0.3010 BANGLA LEKHTA PARI
-0.3010 BANGLA VASHA KOTHIN
-0.3010 BANGLADESHA BASH KORI
-0.3010 BANGLADESHA THAKI </s>
-0.3010 BARISALA THAKI </s>
-0.3010 BASH KORI </s>
-0.3010 BOLA JAAI </s>
-0.3010 BOLA JAI </s>
-0.3010 CHINTA KORTEE PARI
-0.3010 CHITTAGONGA THAKI </s>
-0.3010 DAAM KOTO </s>
-0.3010 DHAKAI THAKI </s>
-0.3010 JAMON DHORUN </s>
-0.3010 KAAJ KORI </s>
-0.3010 KAJI TRISH TAKA
-0.3010 KAMON ASAN </s>
-0.3010 KAMON ASO </s>
-0.3010 KHUB GOROM </s>
-0.3010 KI BOLA JAAI
-0.3010 KICHU BANGLA BAKKO
-0.3010 KISU SADHARON BAKKO
-0.3010 KORI APONARAA SHOBAI
-0.3010 KORTA PARI </s>
-0.3010 KORTEE PARI </s>
-0.3010 KOTHA CHINTA KORTEE
-0.3010 KOTHIN KAAJ </s>
-0.3010 KOTO ALUR DAAM
-0.3010 LAKHONITEE SHAGOTWM </s>
-0.3010 LEKHA KOTHIN KAAJ
-0.3010 LEKHTA PARI </s>
-0.3010 MASAAR DAAM KOTO
-0.3010 NAAM HASIBUL </s>
-0.3010 NAAM HUDA </s>
-0.3010 NAAM SHAZZAD </s>
-0.3010 NORTH SOUTHE PORI
-0.3010 ONAK GOROM </s>
-0.3010 PIAJEER DAAM KOTO
-0.3010 PROTI KAJI TRISH
-0.3010 RAJSHAHITA THAKI </s>
-0.3010 SADHARON BAKKO </s>
-0.3010 SCHOOLA JAI </s>
-0.3010 SHOBAI VALO ASAN
-0.3010 SHOBAIKEE BANGLA LAKHONITEE
-0.3010 SHOBAIKEE DHONNOBAD </s>
-0.3010 SHOBAIKEE SHAGOTWM </s>
-0.3010 SHOBJIR DAAM KOTO
-0.3010 SILO KISU SADHARON
-0.3010 SOUTHE PORI </s>
-0.3010 SURU KORTA PARI
-0.3010 TRISH TAKA </s>
-0.3010 TUMI ABONG SHA
-0.3010 TUMI KAMON ASO
-0.3010 VALO ASAN </s>
-0.3010 VALO ASI </s>
-0.3010 VASHA KOTHIN </s>
-0.3010 VAT KHAAI </s>

\end\
